=== Run information ===

Scheme:       weka.classifiers.trees.J48 -C 0.25 -M 2
Relation:     C__movie_review_polarity-weka.filters.unsupervised.attribute.StringToWordVector-R1-W1000-prune-rate-1.0-C-T-I-N0-stemmerweka.core.stemmers.LovinsStemmer-stopwords-handlerweka.core.stopwords.Null-M5-tokenizerweka.core.tokenizers.WordTokenizer -delimiters " \r\n\t.,;:\'\"()?!"-weka.filters.unsupervised.attribute.Reorder-R2,3,4,5,6,7,8,9,10,11,12,13,14,15,16,17,18,19,20,21,22,23,24,25,26,27,28,29,30,31,32,33,34,35,36,37,38,39,40,41,42,43,44,45,46,47,48,49,50,51,52,53,54,55,56,57,58,59,60,61,62,63,64,65,66,67,68,69,70,71,72,73,74,75,76,77,78,79,80,81,82,83,84,85,86,87,88,89,90,91,92,93,94,95,96,97,98,99,100,101,102,103,104,105,106,107,108,109,110,111,112,113,114,115,116,117,118,119,120,121,122,123,124,125,126,127,128,129,130,131,132,133,134,135,136,137,138,139,140,141,142,143,144,145,146,147,148,149,150,151,152,153,154,155,156,157,158,159,160,161,162,163,164,165,166,167,168,169,170,171,172,173,174,175,176,177,178,179,180,181,182,183,184,185,186,187,188,189,190,191,192,193,194,195,196,197,198,199,200,201,202,203,204,205,206,207,208,209,210,211,212,213,214,215,216,217,218,219,220,221,222,223,224,225,226,227,228,229,230,231,232,233,234,235,236,237,238,239,240,241,242,243,244,245,246,247,248,249,250,251,252,253,254,255,256,257,258,259,260,261,262,263,264,265,266,267,268,269,270,271,272,273,274,275,276,277,278,279,280,281,282,283,284,285,286,287,288,289,290,291,292,293,294,295,296,297,298,299,300,301,302,303,304,305,306,307,308,309,310,311,312,313,314,315,316,317,318,319,320,321,322,323,324,325,326,327,328,329,330,331,332,333,334,335,336,337,338,339,340,341,342,343,344,345,346,347,348,349,350,351,352,353,354,355,356,357,358,359,360,361,362,363,364,365,366,367,368,369,370,371,372,373,374,375,376,377,378,379,380,381,382,383,384,385,386,387,388,389,390,391,392,393,394,395,396,397,398,399,400,401,402,403,404,405,406,407,408,409,410,411,412,413,414,415,416,417,418,419,420,421,422,423,424,425,426,427,428,429,430,431,432,433,434,435,436,437,438,439,440,441,442,443,444,445,446,447,448,449,450,451,452,453,454,455,456,457,458,459,460,461,462,463,464,465,466,467,468,469,470,471,472,473,474,475,476,477,478,479,480,481,482,483,484,485,486,487,488,489,490,491,492,493,494,495,496,497,498,499,500,501,502,503,504,505,506,507,508,509,510,511,512,513,514,515,516,517,518,519,520,521,522,523,524,525,526,527,528,529,530,531,532,533,534,535,536,537,538,539,540,541,542,543,544,545,546,547,548,549,550,551,552,553,554,555,556,557,558,559,560,561,562,563,564,565,566,567,568,569,570,571,572,573,574,575,576,577,578,579,580,581,582,583,584,585,586,587,588,589,590,591,592,593,594,595,596,597,598,599,600,601,602,603,604,605,606,607,608,609,610,611,612,613,614,615,616,617,618,619,620,621,622,623,624,625,626,627,628,629,630,631,632,633,634,635,636,637,638,639,640,641,642,643,644,645,646,647,648,649,650,651,652,653,654,655,656,657,658,659,660,661,662,663,664,665,666,667,668,669,670,671,672,673,674,675,676,677,678,679,680,681,682,683,684,685,686,687,688,689,690,691,692,693,694,695,696,697,698,699,700,701,702,703,704,705,706,707,708,709,710,711,712,713,714,715,716,717,718,719,720,721,722,723,724,725,726,727,728,729,730,731,732,733,734,735,736,737,738,739,740,741,742,743,744,745,746,747,748,749,750,751,752,753,754,755,756,757,758,759,760,761,762,763,764,765,766,767,768,769,770,771,772,773,774,775,776,777,778,779,780,781,782,783,784,785,786,787,788,789,790,791,792,793,794,795,796,797,798,799,800,801,802,803,804,805,806,807,808,809,810,811,812,813,814,815,816,817,818,819,820,821,822,823,824,825,826,827,828,829,830,831,832,833,834,835,836,837,838,839,840,841,842,843,844,845,846,847,848,849,850,851,852,853,854,855,856,857,858,859,860,861,862,863,864,865,866,867,868,869,870,871,872,873,874,875,876,877,878,879,880,881,882,883,884,885,886,887,888,889,890,891,892,893,894,895,896,897,898,899,900,901,902,903,904,905,906,907,908,909,910,911,912,913,914,915,916,917,918,919,920,921,922,923,924,925,926,927,928,929,930,931,932,933,934,935,936,937,938,939,940,941,942,943,944,945,946,947,948,949,950,951,952,953,954,955,956,957,958,959,960,961,962,963,964,965,966,967,968,969,970,971,972,973,974,975,976,977,978,979,980,981,982,983,984,985,986,987,988,989,990,991,992,993,994,995,996,997,998,999,1000,1001,1002,1003,1004,1005,1006,1007,1008,1009,1010,1011,1012,1013,1014,1015,1016,1017,1018,1019,1020,1021,1022,1023,1024,1025,1026,1027,1028,1029,1030,1031,1032,1033,1034,1035,1036,1037,1038,1039,1040,1041,1042,1043,1044,1045,1046,1047,1048,1049,1050,1051,1052,1053,1054,1055,1056,1057,1058,1059,1060,1061,1062,1063,1064,1065,1066,1067,1068,1069,1070,1071,1072,1073,1074,1075,1076,1077,1078,1079,1080,1081,1082,1083,1084,1085,1086,1087,1088,1089,1090,1091,1092,1093,1094,1095,1096,1097,1098,1099,1100,1101,1102,1103,1104,1105,1106,1107,1108,1109,1110,1111,1112,1113,1114,1115,1116,1117,1118,1119,1120,1121,1122,1123,1124,1125,1126,1127,1128,1129,1130,1131,1132,1133,1134,1135,1136,1137,1138,1139,1140,1141,1142,1143,1144,1145,1146,1147,1148,1149,1150,1151,1152,1153,1154,1
Instances:    2000
Attributes:   1154
              [list of attributes omitted]
Test mode:    10-fold cross-validation

=== Classifier model (full training set) ===

J48 pruned tree
------------------

wast <= 0
|   stupid <= 0
|   |   worst <= 0
|   |   |   overal <= 0
|   |   |   |   lam <= 0
|   |   |   |   |   hi <= 0.360738
|   |   |   |   |   |   seen <= 1.270843
|   |   |   |   |   |   |   why <= 1.356162
|   |   |   |   |   |   |   |   great <= 1.414385
|   |   |   |   |   |   |   |   |   unfun <= 0
|   |   |   |   |   |   |   |   |   |   lif <= 1.464685
|   |   |   |   |   |   |   |   |   |   |   war <= 2.152176
|   |   |   |   |   |   |   |   |   |   |   |   dream <= 1.562212
|   |   |   |   |   |   |   |   |   |   |   |   |   suppos <= 1.14207
|   |   |   |   |   |   |   |   |   |   |   |   |   |   emot <= 1.218108
|   |   |   |   |   |   |   |   |   |   |   |   |   |   |   excel <= 0
|   |   |   |   |   |   |   |   |   |   |   |   |   |   |   |   aw <= 0
|   |   |   |   |   |   |   |   |   |   |   |   |   |   |   |   |   fam <= 1.542955
|   |   |   |   |   |   |   |   |   |   |   |   |   |   |   |   |   |   terrif <= 0
|   |   |   |   |   |   |   |   |   |   |   |   |   |   |   |   |   |   |   prov <= 1.04794
|   |   |   |   |   |   |   |   |   |   |   |   |   |   |   |   |   |   |   |   ridicl <= 0
|   |   |   |   |   |   |   |   |   |   |   |   |   |   |   |   |   |   |   |   |   ed <= 0
|   |   |   |   |   |   |   |   |   |   |   |   |   |   |   |   |   |   |   |   |   |   hilar <= 0
|   |   |   |   |   |   |   |   |   |   |   |   |   |   |   |   |   |   |   |   |   |   |   noth <= 0.845006
|   |   |   |   |   |   |   |   |   |   |   |   |   |   |   |   |   |   |   |   |   |   |   |   pot <= 0
|   |   |   |   |   |   |   |   |   |   |   |   |   |   |   |   |   |   |   |   |   |   |   |   |   is <= 0.006779
|   |   |   |   |   |   |   |   |   |   |   |   |   |   |   |   |   |   |   |   |   |   |   |   |   |   sec <= 1.253133
|   |   |   |   |   |   |   |   |   |   |   |   |   |   |   |   |   |   |   |   |   |   |   |   |   |   |   intellig <= 0
|   |   |   |   |   |   |   |   |   |   |   |   |   |   |   |   |   |   |   |   |   |   |   |   |   |   |   |   sometim <= 0
|   |   |   |   |   |   |   |   |   |   |   |   |   |   |   |   |   |   |   |   |   |   |   |   |   |   |   |   |   town <= 0
|   |   |   |   |   |   |   |   |   |   |   |   |   |   |   |   |   |   |   |   |   |   |   |   |   |   |   |   |   |   poor <= 0
|   |   |   |   |   |   |   |   |   |   |   |   |   |   |   |   |   |   |   |   |   |   |   |   |   |   |   |   |   |   |   color <= 0
|   |   |   |   |   |   |   |   |   |   |   |   |   |   |   |   |   |   |   |   |   |   |   |   |   |   |   |   |   |   |   |   entertain <= 0
|   |   |   |   |   |   |   |   |   |   |   |   |   |   |   |   |   |   |   |   |   |   |   |   |   |   |   |   |   |   |   |   |   scar <= 0
|   |   |   |   |   |   |   |   |   |   |   |   |   |   |   |   |   |   |   |   |   |   |   |   |   |   |   |   |   |   |   |   |   |   promis <= 0
|   |   |   |   |   |   |   |   |   |   |   |   |   |   |   |   |   |   |   |   |   |   |   |   |   |   |   |   |   |   |   |   |   |   |   offic <= 0
|   |   |   |   |   |   |   |   |   |   |   |   |   |   |   |   |   |   |   |   |   |   |   |   |   |   |   |   |   |   |   |   |   |   |   |   me <= 0.670678
|   |   |   |   |   |   |   |   |   |   |   |   |   |   |   |   |   |   |   |   |   |   |   |   |   |   |   |   |   |   |   |   |   |   |   |   |   eventu <= 0
|   |   |   |   |   |   |   |   |   |   |   |   |   |   |   |   |   |   |   |   |   |   |   |   |   |   |   |   |   |   |   |   |   |   |   |   |   |   work <= 0.47976
|   |   |   |   |   |   |   |   |   |   |   |   |   |   |   |   |   |   |   |   |   |   |   |   |   |   |   |   |   |   |   |   |   |   |   |   |   |   |   non <= 0
|   |   |   |   |   |   |   |   |   |   |   |   |   |   |   |   |   |   |   |   |   |   |   |   |   |   |   |   |   |   |   |   |   |   |   |   |   |   |   |   onc <= 0
|   |   |   |   |   |   |   |   |   |   |   |   |   |   |   |   |   |   |   |   |   |   |   |   |   |   |   |   |   |   |   |   |   |   |   |   |   |   |   |   |   ter <= 0
|   |   |   |   |   |   |   |   |   |   |   |   |   |   |   |   |   |   |   |   |   |   |   |   |   |   |   |   |   |   |   |   |   |   |   |   |   |   |   |   |   |   figur <= 0
|   |   |   |   |   |   |   |   |   |   |   |   |   |   |   |   |   |   |   |   |   |   |   |   |   |   |   |   |   |   |   |   |   |   |   |   |   |   |   |   |   |   |   eas <= 0
|   |   |   |   |   |   |   |   |   |   |   |   |   |   |   |   |   |   |   |   |   |   |   |   |   |   |   |   |   |   |   |   |   |   |   |   |   |   |   |   |   |   |   |   jam <= 0
|   |   |   |   |   |   |   |   |   |   |   |   |   |   |   |   |   |   |   |   |   |   |   |   |   |   |   |   |   |   |   |   |   |   |   |   |   |   |   |   |   |   |   |   |   down <= 0
|   |   |   |   |   |   |   |   |   |   |   |   |   |   |   |   |   |   |   |   |   |   |   |   |   |   |   |   |   |   |   |   |   |   |   |   |   |   |   |   |   |   |   |   |   |   order <= 0
|   |   |   |   |   |   |   |   |   |   |   |   |   |   |   |   |   |   |   |   |   |   |   |   |   |   |   |   |   |   |   |   |   |   |   |   |   |   |   |   |   |   |   |   |   |   |   boy <= 0
|   |   |   |   |   |   |   |   |   |   |   |   |   |   |   |   |   |   |   |   |   |   |   |   |   |   |   |   |   |   |   |   |   |   |   |   |   |   |   |   |   |   |   |   |   |   |   |   four <= 0
|   |   |   |   |   |   |   |   |   |   |   |   |   |   |   |   |   |   |   |   |   |   |   |   |   |   |   |   |   |   |   |   |   |   |   |   |   |   |   |   |   |   |   |   |   |   |   |   |   admis <= 0
|   |   |   |   |   |   |   |   |   |   |   |   |   |   |   |   |   |   |   |   |   |   |   |   |   |   |   |   |   |   |   |   |   |   |   |   |   |   |   |   |   |   |   |   |   |   |   |   |   |   allow <= 0
|   |   |   |   |   |   |   |   |   |   |   |   |   |   |   |   |   |   |   |   |   |   |   |   |   |   |   |   |   |   |   |   |   |   |   |   |   |   |   |   |   |   |   |   |   |   |   |   |   |   |   open <= 0: neg (45.0/2.0)
|   |   |   |   |   |   |   |   |   |   |   |   |   |   |   |   |   |   |   |   |   |   |   |   |   |   |   |   |   |   |   |   |   |   |   |   |   |   |   |   |   |   |   |   |   |   |   |   |   |   |   open > 0: pos (4.0/1.0)
|   |   |   |   |   |   |   |   |   |   |   |   |   |   |   |   |   |   |   |   |   |   |   |   |   |   |   |   |   |   |   |   |   |   |   |   |   |   |   |   |   |   |   |   |   |   |   |   |   |   allow > 0
|   |   |   |   |   |   |   |   |   |   |   |   |   |   |   |   |   |   |   |   |   |   |   |   |   |   |   |   |   |   |   |   |   |   |   |   |   |   |   |   |   |   |   |   |   |   |   |   |   |   |   - <= 0: pos (6.0)
|   |   |   |   |   |   |   |   |   |   |   |   |   |   |   |   |   |   |   |   |   |   |   |   |   |   |   |   |   |   |   |   |   |   |   |   |   |   |   |   |   |   |   |   |   |   |   |   |   |   |   - > 0: neg (2.0)
|   |   |   |   |   |   |   |   |   |   |   |   |   |   |   |   |   |   |   |   |   |   |   |   |   |   |   |   |   |   |   |   |   |   |   |   |   |   |   |   |   |   |   |   |   |   |   |   |   admis > 0: pos (3.0/1.0)
|   |   |   |   |   |   |   |   |   |   |   |   |   |   |   |   |   |   |   |   |   |   |   |   |   |   |   |   |   |   |   |   |   |   |   |   |   |   |   |   |   |   |   |   |   |   |   |   four > 0: pos (4.0/1.0)
|   |   |   |   |   |   |   |   |   |   |   |   |   |   |   |   |   |   |   |   |   |   |   |   |   |   |   |   |   |   |   |   |   |   |   |   |   |   |   |   |   |   |   |   |   |   |   boy > 0: pos (5.0/1.0)
|   |   |   |   |   |   |   |   |   |   |   |   |   |   |   |   |   |   |   |   |   |   |   |   |   |   |   |   |   |   |   |   |   |   |   |   |   |   |   |   |   |   |   |   |   |   order > 0: pos (5.0/1.0)
|   |   |   |   |   |   |   |   |   |   |   |   |   |   |   |   |   |   |   |   |   |   |   |   |   |   |   |   |   |   |   |   |   |   |   |   |   |   |   |   |   |   |   |   |   down > 0: neg (16.0)
|   |   |   |   |   |   |   |   |   |   |   |   |   |   |   |   |   |   |   |   |   |   |   |   |   |   |   |   |   |   |   |   |   |   |   |   |   |   |   |   |   |   |   |   jam > 0: pos (5.0/1.0)
|   |   |   |   |   |   |   |   |   |   |   |   |   |   |   |   |   |   |   |   |   |   |   |   |   |   |   |   |   |   |   |   |   |   |   |   |   |   |   |   |   |   |   eas > 0: pos (7.0/1.0)
|   |   |   |   |   |   |   |   |   |   |   |   |   |   |   |   |   |   |   |   |   |   |   |   |   |   |   |   |   |   |   |   |   |   |   |   |   |   |   |   |   |   figur > 0: pos (8.0/1.0)
|   |   |   |   |   |   |   |   |   |   |   |   |   |   |   |   |   |   |   |   |   |   |   |   |   |   |   |   |   |   |   |   |   |   |   |   |   |   |   |   |   ter > 0: neg (13.0)
|   |   |   |   |   |   |   |   |   |   |   |   |   |   |   |   |   |   |   |   |   |   |   |   |   |   |   |   |   |   |   |   |   |   |   |   |   |   |   |   onc > 0
|   |   |   |   |   |   |   |   |   |   |   |   |   |   |   |   |   |   |   |   |   |   |   |   |   |   |   |   |   |   |   |   |   |   |   |   |   |   |   |   |   mater <= 0
|   |   |   |   |   |   |   |   |   |   |   |   |   |   |   |   |   |   |   |   |   |   |   |   |   |   |   |   |   |   |   |   |   |   |   |   |   |   |   |   |   |   er <= 0: pos (14.0)
|   |   |   |   |   |   |   |   |   |   |   |   |   |   |   |   |   |   |   |   |   |   |   |   |   |   |   |   |   |   |   |   |   |   |   |   |   |   |   |   |   |   er > 0: neg (2.0)
|   |   |   |   |   |   |   |   |   |   |   |   |   |   |   |   |   |   |   |   |   |   |   |   |   |   |   |   |   |   |   |   |   |   |   |   |   |   |   |   |   mater > 0: neg (3.0)
|   |   |   |   |   |   |   |   |   |   |   |   |   |   |   |   |   |   |   |   |   |   |   |   |   |   |   |   |   |   |   |   |   |   |   |   |   |   |   non > 0: neg (10.0)
|   |   |   |   |   |   |   |   |   |   |   |   |   |   |   |   |   |   |   |   |   |   |   |   |   |   |   |   |   |   |   |   |   |   |   |   |   |   work > 0.47976
|   |   |   |   |   |   |   |   |   |   |   |   |   |   |   |   |   |   |   |   |   |   |   |   |   |   |   |   |   |   |   |   |   |   |   |   |   |   |   did <= 0: pos (15.0/1.0)
|   |   |   |   |   |   |   |   |   |   |   |   |   |   |   |   |   |   |   |   |   |   |   |   |   |   |   |   |   |   |   |   |   |   |   |   |   |   |   did > 0: neg (3.0)
|   |   |   |   |   |   |   |   |   |   |   |   |   |   |   |   |   |   |   |   |   |   |   |   |   |   |   |   |   |   |   |   |   |   |   |   |   eventu > 0
|   |   |   |   |   |   |   |   |   |   |   |   |   |   |   |   |   |   |   |   |   |   |   |   |   |   |   |   |   |   |   |   |   |   |   |   |   |   fail <= 0: pos (9.0)
|   |   |   |   |   |   |   |   |   |   |   |   |   |   |   |   |   |   |   |   |   |   |   |   |   |   |   |   |   |   |   |   |   |   |   |   |   |   fail > 0: neg (2.0)
|   |   |   |   |   |   |   |   |   |   |   |   |   |   |   |   |   |   |   |   |   |   |   |   |   |   |   |   |   |   |   |   |   |   |   |   me > 0.670678: neg (16.0)
|   |   |   |   |   |   |   |   |   |   |   |   |   |   |   |   |   |   |   |   |   |   |   |   |   |   |   |   |   |   |   |   |   |   |   offic > 0
|   |   |   |   |   |   |   |   |   |   |   |   |   |   |   |   |   |   |   |   |   |   |   |   |   |   |   |   |   |   |   |   |   |   |   |   i <= 0: neg (3.0)
|   |   |   |   |   |   |   |   |   |   |   |   |   |   |   |   |   |   |   |   |   |   |   |   |   |   |   |   |   |   |   |   |   |   |   |   i > 0: pos (11.0)
|   |   |   |   |   |   |   |   |   |   |   |   |   |   |   |   |   |   |   |   |   |   |   |   |   |   |   |   |   |   |   |   |   |   promis > 0: neg (17.0/1.0)
|   |   |   |   |   |   |   |   |   |   |   |   |   |   |   |   |   |   |   |   |   |   |   |   |   |   |   |   |   |   |   |   |   scar > 0: neg (15.0)
|   |   |   |   |   |   |   |   |   |   |   |   |   |   |   |   |   |   |   |   |   |   |   |   |   |   |   |   |   |   |   |   entertain > 0
|   |   |   |   |   |   |   |   |   |   |   |   |   |   |   |   |   |   |   |   |   |   |   |   |   |   |   |   |   |   |   |   |   problem <= 0
|   |   |   |   |   |   |   |   |   |   |   |   |   |   |   |   |   |   |   |   |   |   |   |   |   |   |   |   |   |   |   |   |   |   left <= 0: pos (20.0/1.0)
|   |   |   |   |   |   |   |   |   |   |   |   |   |   |   |   |   |   |   |   |   |   |   |   |   |   |   |   |   |   |   |   |   |   left > 0: neg (2.0)
|   |   |   |   |   |   |   |   |   |   |   |   |   |   |   |   |   |   |   |   |   |   |   |   |   |   |   |   |   |   |   |   |   problem > 0: neg (4.0)
|   |   |   |   |   |   |   |   |   |   |   |   |   |   |   |   |   |   |   |   |   |   |   |   |   |   |   |   |   |   |   color > 0
|   |   |   |   |   |   |   |   |   |   |   |   |   |   |   |   |   |   |   |   |   |   |   |   |   |   |   |   |   |   |   |   audi <= 0: pos (14.0/1.0)
|   |   |   |   |   |   |   |   |   |   |   |   |   |   |   |   |   |   |   |   |   |   |   |   |   |   |   |   |   |   |   |   audi > 0: neg (2.0)
|   |   |   |   |   |   |   |   |   |   |   |   |   |   |   |   |   |   |   |   |   |   |   |   |   |   |   |   |   |   poor > 0: neg (16.0/1.0)
|   |   |   |   |   |   |   |   |   |   |   |   |   |   |   |   |   |   |   |   |   |   |   |   |   |   |   |   |   town > 0
|   |   |   |   |   |   |   |   |   |   |   |   |   |   |   |   |   |   |   |   |   |   |   |   |   |   |   |   |   |   gon <= 0
|   |   |   |   |   |   |   |   |   |   |   |   |   |   |   |   |   |   |   |   |   |   |   |   |   |   |   |   |   |   |   strik <= 0
|   |   |   |   |   |   |   |   |   |   |   |   |   |   |   |   |   |   |   |   |   |   |   |   |   |   |   |   |   |   |   |   embarras <= 0: pos (29.0/1.0)
|   |   |   |   |   |   |   |   |   |   |   |   |   |   |   |   |   |   |   |   |   |   |   |   |   |   |   |   |   |   |   |   embarras > 0: neg (2.0)
|   |   |   |   |   |   |   |   |   |   |   |   |   |   |   |   |   |   |   |   |   |   |   |   |   |   |   |   |   |   |   strik > 0: neg (3.0)
|   |   |   |   |   |   |   |   |   |   |   |   |   |   |   |   |   |   |   |   |   |   |   |   |   |   |   |   |   |   gon > 0: neg (4.0)
|   |   |   |   |   |   |   |   |   |   |   |   |   |   |   |   |   |   |   |   |   |   |   |   |   |   |   |   sometim > 0
|   |   |   |   |   |   |   |   |   |   |   |   |   |   |   |   |   |   |   |   |   |   |   |   |   |   |   |   |   forges <= 0
|   |   |   |   |   |   |   |   |   |   |   |   |   |   |   |   |   |   |   |   |   |   |   |   |   |   |   |   |   |   as <= 0: neg (3.0)
|   |   |   |   |   |   |   |   |   |   |   |   |   |   |   |   |   |   |   |   |   |   |   |   |   |   |   |   |   |   as > 0: pos (19.0)
|   |   |   |   |   |   |   |   |   |   |   |   |   |   |   |   |   |   |   |   |   |   |   |   |   |   |   |   |   forges > 0: neg (2.0)
|   |   |   |   |   |   |   |   |   |   |   |   |   |   |   |   |   |   |   |   |   |   |   |   |   |   |   intellig > 0
|   |   |   |   |   |   |   |   |   |   |   |   |   |   |   |   |   |   |   |   |   |   |   |   |   |   |   |   secons <= 0
|   |   |   |   |   |   |   |   |   |   |   |   |   |   |   |   |   |   |   |   |   |   |   |   |   |   |   |   |   alway <= 1.060629: pos (23.0)
|   |   |   |   |   |   |   |   |   |   |   |   |   |   |   |   |   |   |   |   |   |   |   |   |   |   |   |   |   alway > 1.060629: neg (2.0)
|   |   |   |   |   |   |   |   |   |   |   |   |   |   |   |   |   |   |   |   |   |   |   |   |   |   |   |   secons > 0: neg (4.0)
|   |   |   |   |   |   |   |   |   |   |   |   |   |   |   |   |   |   |   |   |   |   |   |   |   |   sec > 1.253133
|   |   |   |   |   |   |   |   |   |   |   |   |   |   |   |   |   |   |   |   |   |   |   |   |   |   |   deal <= 0: neg (19.0/1.0)
|   |   |   |   |   |   |   |   |   |   |   |   |   |   |   |   |   |   |   |   |   |   |   |   |   |   |   deal > 0: pos (2.0)
|   |   |   |   |   |   |   |   |   |   |   |   |   |   |   |   |   |   |   |   |   |   |   |   |   is > 0.006779
|   |   |   |   |   |   |   |   |   |   |   |   |   |   |   |   |   |   |   |   |   |   |   |   |   |   sil <= 0
|   |   |   |   |   |   |   |   |   |   |   |   |   |   |   |   |   |   |   |   |   |   |   |   |   |   |   med <= 0
|   |   |   |   |   |   |   |   |   |   |   |   |   |   |   |   |   |   |   |   |   |   |   |   |   |   |   |   styl <= 1.281165
|   |   |   |   |   |   |   |   |   |   |   |   |   |   |   |   |   |   |   |   |   |   |   |   |   |   |   |   |   chas <= 0
|   |   |   |   |   |   |   |   |   |   |   |   |   |   |   |   |   |   |   |   |   |   |   |   |   |   |   |   |   |   bit <= 0.952638: pos (66.0)
|   |   |   |   |   |   |   |   |   |   |   |   |   |   |   |   |   |   |   |   |   |   |   |   |   |   |   |   |   |   bit > 0.952638
|   |   |   |   |   |   |   |   |   |   |   |   |   |   |   |   |   |   |   |   |   |   |   |   |   |   |   |   |   |   |   actu <= 0.768466: pos (3.0)
|   |   |   |   |   |   |   |   |   |   |   |   |   |   |   |   |   |   |   |   |   |   |   |   |   |   |   |   |   |   |   actu > 0.768466: neg (2.0)
|   |   |   |   |   |   |   |   |   |   |   |   |   |   |   |   |   |   |   |   |   |   |   |   |   |   |   |   |   chas > 0
|   |   |   |   |   |   |   |   |   |   |   |   |   |   |   |   |   |   |   |   |   |   |   |   |   |   |   |   |   |   down <= 0: pos (3.0)
|   |   |   |   |   |   |   |   |   |   |   |   |   |   |   |   |   |   |   |   |   |   |   |   |   |   |   |   |   |   down > 0: neg (3.0)
|   |   |   |   |   |   |   |   |   |   |   |   |   |   |   |   |   |   |   |   |   |   |   |   |   |   |   |   styl > 1.281165
|   |   |   |   |   |   |   |   |   |   |   |   |   |   |   |   |   |   |   |   |   |   |   |   |   |   |   |   |   attempt <= 0: neg (3.0)
|   |   |   |   |   |   |   |   |   |   |   |   |   |   |   |   |   |   |   |   |   |   |   |   |   |   |   |   |   attempt > 0: pos (2.0)
|   |   |   |   |   |   |   |   |   |   |   |   |   |   |   |   |   |   |   |   |   |   |   |   |   |   |   med > 0
|   |   |   |   |   |   |   |   |   |   |   |   |   |   |   |   |   |   |   |   |   |   |   |   |   |   |   |   - <= 0: neg (3.0)
|   |   |   |   |   |   |   |   |   |   |   |   |   |   |   |   |   |   |   |   |   |   |   |   |   |   |   |   - > 0: pos (2.0)
|   |   |   |   |   |   |   |   |   |   |   |   |   |   |   |   |   |   |   |   |   |   |   |   |   |   sil > 0
|   |   |   |   |   |   |   |   |   |   |   |   |   |   |   |   |   |   |   |   |   |   |   |   |   |   |   blood <= 0: neg (6.0)
|   |   |   |   |   |   |   |   |   |   |   |   |   |   |   |   |   |   |   |   |   |   |   |   |   |   |   blood > 0: pos (2.0)
|   |   |   |   |   |   |   |   |   |   |   |   |   |   |   |   |   |   |   |   |   |   |   |   pot > 0
|   |   |   |   |   |   |   |   |   |   |   |   |   |   |   |   |   |   |   |   |   |   |   |   |   1 <= 0
|   |   |   |   |   |   |   |   |   |   |   |   |   |   |   |   |   |   |   |   |   |   |   |   |   |   dur <= 0.969274
|   |   |   |   |   |   |   |   |   |   |   |   |   |   |   |   |   |   |   |   |   |   |   |   |   |   |   turn <= 0.708155
|   |   |   |   |   |   |   |   |   |   |   |   |   |   |   |   |   |   |   |   |   |   |   |   |   |   |   |   although <= 1.463139
|   |   |   |   |   |   |   |   |   |   |   |   |   |   |   |   |   |   |   |   |   |   |   |   |   |   |   |   |   parent <= 0: neg (33.0)
|   |   |   |   |   |   |   |   |   |   |   |   |   |   |   |   |   |   |   |   |   |   |   |   |   |   |   |   |   parent > 0
|   |   |   |   |   |   |   |   |   |   |   |   |   |   |   |   |   |   |   |   |   |   |   |   |   |   |   |   |   |   again <= 0: pos (2.0)
|   |   |   |   |   |   |   |   |   |   |   |   |   |   |   |   |   |   |   |   |   |   |   |   |   |   |   |   |   |   again > 0: neg (3.0)
|   |   |   |   |   |   |   |   |   |   |   |   |   |   |   |   |   |   |   |   |   |   |   |   |   |   |   |   although > 1.463139: pos (3.0/1.0)
|   |   |   |   |   |   |   |   |   |   |   |   |   |   |   |   |   |   |   |   |   |   |   |   |   |   |   turn > 0.708155: pos (4.0/1.0)
|   |   |   |   |   |   |   |   |   |   |   |   |   |   |   |   |   |   |   |   |   |   |   |   |   |   dur > 0.969274: pos (3.0)
|   |   |   |   |   |   |   |   |   |   |   |   |   |   |   |   |   |   |   |   |   |   |   |   |   1 > 0: pos (3.0)
|   |   |   |   |   |   |   |   |   |   |   |   |   |   |   |   |   |   |   |   |   |   |   noth > 0.845006
|   |   |   |   |   |   |   |   |   |   |   |   |   |   |   |   |   |   |   |   |   |   |   |   himself <= 0.977744
|   |   |   |   |   |   |   |   |   |   |   |   |   |   |   |   |   |   |   |   |   |   |   |   |   difficult <= 0: neg (24.0)
|   |   |   |   |   |   |   |   |   |   |   |   |   |   |   |   |   |   |   |   |   |   |   |   |   difficult > 0: pos (3.0/1.0)
|   |   |   |   |   |   |   |   |   |   |   |   |   |   |   |   |   |   |   |   |   |   |   |   himself > 0.977744: pos (3.0)
|   |   |   |   |   |   |   |   |   |   |   |   |   |   |   |   |   |   |   |   |   |   hilar > 0
|   |   |   |   |   |   |   |   |   |   |   |   |   |   |   |   |   |   |   |   |   |   |   saying <= 0
|   |   |   |   |   |   |   |   |   |   |   |   |   |   |   |   |   |   |   |   |   |   |   |   god <= 0
|   |   |   |   |   |   |   |   |   |   |   |   |   |   |   |   |   |   |   |   |   |   |   |   |   o <= 0
|   |   |   |   |   |   |   |   |   |   |   |   |   |   |   |   |   |   |   |   |   |   |   |   |   |   femal <= 0: pos (40.0/1.0)
|   |   |   |   |   |   |   |   |   |   |   |   |   |   |   |   |   |   |   |   |   |   |   |   |   |   femal > 0
|   |   |   |   |   |   |   |   |   |   |   |   |   |   |   |   |   |   |   |   |   |   |   |   |   |   |   a <= 0.005672: neg (2.0)
|   |   |   |   |   |   |   |   |   |   |   |   |   |   |   |   |   |   |   |   |   |   |   |   |   |   |   a > 0.005672: pos (2.0)
|   |   |   |   |   |   |   |   |   |   |   |   |   |   |   |   |   |   |   |   |   |   |   |   |   o > 0: neg (4.0/1.0)
|   |   |   |   |   |   |   |   |   |   |   |   |   |   |   |   |   |   |   |   |   |   |   |   god > 0: neg (4.0/1.0)
|   |   |   |   |   |   |   |   |   |   |   |   |   |   |   |   |   |   |   |   |   |   |   saying > 0: neg (3.0)
|   |   |   |   |   |   |   |   |   |   |   |   |   |   |   |   |   |   |   |   |   ed > 0
|   |   |   |   |   |   |   |   |   |   |   |   |   |   |   |   |   |   |   |   |   |   bor <= 0
|   |   |   |   |   |   |   |   |   |   |   |   |   |   |   |   |   |   |   |   |   |   |   mayb <= 0: pos (26.0/1.0)
|   |   |   |   |   |   |   |   |   |   |   |   |   |   |   |   |   |   |   |   |   |   |   mayb > 0: neg (2.0)
|   |   |   |   |   |   |   |   |   |   |   |   |   |   |   |   |   |   |   |   |   |   bor > 0: neg (2.0)
|   |   |   |   |   |   |   |   |   |   |   |   |   |   |   |   |   |   |   |   ridicl > 0
|   |   |   |   |   |   |   |   |   |   |   |   |   |   |   |   |   |   |   |   |   neces <= 0
|   |   |   |   |   |   |   |   |   |   |   |   |   |   |   |   |   |   |   |   |   |   david <= 1.411512
|   |   |   |   |   |   |   |   |   |   |   |   |   |   |   |   |   |   |   |   |   |   |   natur <= 0: neg (33.0/1.0)
|   |   |   |   |   |   |   |   |   |   |   |   |   |   |   |   |   |   |   |   |   |   |   natur > 0: pos (4.0/1.0)
|   |   |   |   |   |   |   |   |   |   |   |   |   |   |   |   |   |   |   |   |   |   david > 1.411512: pos (2.0)
|   |   |   |   |   |   |   |   |   |   |   |   |   |   |   |   |   |   |   |   |   neces > 0: pos (3.0)
|   |   |   |   |   |   |   |   |   |   |   |   |   |   |   |   |   |   |   prov > 1.04794
|   |   |   |   |   |   |   |   |   |   |   |   |   |   |   |   |   |   |   |   figur <= 0
|   |   |   |   |   |   |   |   |   |   |   |   |   |   |   |   |   |   |   |   |   purpos <= 0: pos (20.0)
|   |   |   |   |   |   |   |   |   |   |   |   |   |   |   |   |   |   |   |   |   purpos > 0: neg (3.0/1.0)
|   |   |   |   |   |   |   |   |   |   |   |   |   |   |   |   |   |   |   |   figur > 0: neg (2.0)
|   |   |   |   |   |   |   |   |   |   |   |   |   |   |   |   |   |   terrif > 0
|   |   |   |   |   |   |   |   |   |   |   |   |   |   |   |   |   |   |   mes <= 0
|   |   |   |   |   |   |   |   |   |   |   |   |   |   |   |   |   |   |   |   fail <= 0: pos (43.0/1.0)
|   |   |   |   |   |   |   |   |   |   |   |   |   |   |   |   |   |   |   |   fail > 0
|   |   |   |   |   |   |   |   |   |   |   |   |   |   |   |   |   |   |   |   |   day <= 0: pos (2.0)
|   |   |   |   |   |   |   |   |   |   |   |   |   |   |   |   |   |   |   |   |   day > 0: neg (4.0)
|   |   |   |   |   |   |   |   |   |   |   |   |   |   |   |   |   |   |   mes > 0: neg (5.0/1.0)
|   |   |   |   |   |   |   |   |   |   |   |   |   |   |   |   |   fam > 1.542955
|   |   |   |   |   |   |   |   |   |   |   |   |   |   |   |   |   |   hid <= 0
|   |   |   |   |   |   |   |   |   |   |   |   |   |   |   |   |   |   |   far <= 1.434388: pos (27.0)
|   |   |   |   |   |   |   |   |   |   |   |   |   |   |   |   |   |   |   far > 1.434388: neg (2.0)
|   |   |   |   |   |   |   |   |   |   |   |   |   |   |   |   |   |   hid > 0: neg (2.0)
|   |   |   |   |   |   |   |   |   |   |   |   |   |   |   |   aw > 0
|   |   |   |   |   |   |   |   |   |   |   |   |   |   |   |   |   latest <= 0
|   |   |   |   |   |   |   |   |   |   |   |   |   |   |   |   |   |   les <= 0.722748
|   |   |   |   |   |   |   |   |   |   |   |   |   |   |   |   |   |   |   mother <= 0
|   |   |   |   |   |   |   |   |   |   |   |   |   |   |   |   |   |   |   |   beaut <= 0: neg (40.0)
|   |   |   |   |   |   |   |   |   |   |   |   |   |   |   |   |   |   |   |   beaut > 0: pos (3.0/1.0)
|   |   |   |   |   |   |   |   |   |   |   |   |   |   |   |   |   |   |   mother > 0: pos (4.0/1.0)
|   |   |   |   |   |   |   |   |   |   |   |   |   |   |   |   |   |   les > 0.722748: pos (5.0/1.0)
|   |   |   |   |   |   |   |   |   |   |   |   |   |   |   |   |   latest > 0: pos (4.0)
|   |   |   |   |   |   |   |   |   |   |   |   |   |   |   excel > 0
|   |   |   |   |   |   |   |   |   |   |   |   |   |   |   |   jok <= 0
|   |   |   |   |   |   |   |   |   |   |   |   |   |   |   |   |   design <= 0
|   |   |   |   |   |   |   |   |   |   |   |   |   |   |   |   |   |   cheap <= 0
|   |   |   |   |   |   |   |   |   |   |   |   |   |   |   |   |   |   |   fan <= 0: pos (60.0/1.0)
|   |   |   |   |   |   |   |   |   |   |   |   |   |   |   |   |   |   |   fan > 0
|   |   |   |   |   |   |   |   |   |   |   |   |   |   |   |   |   |   |   |   after <= 0: neg (2.0)
|   |   |   |   |   |   |   |   |   |   |   |   |   |   |   |   |   |   |   |   after > 0: pos (3.0)
|   |   |   |   |   |   |   |   |   |   |   |   |   |   |   |   |   |   cheap > 0
|   |   |   |   |   |   |   |   |   |   |   |   |   |   |   |   |   |   |   been <= 0.423268: pos (3.0)
|   |   |   |   |   |   |   |   |   |   |   |   |   |   |   |   |   |   |   been > 0.423268: neg (3.0)
|   |   |   |   |   |   |   |   |   |   |   |   |   |   |   |   |   design > 0
|   |   |   |   |   |   |   |   |   |   |   |   |   |   |   |   |   |   anyth <= 0: neg (3.0)
|   |   |   |   |   |   |   |   |   |   |   |   |   |   |   |   |   |   anyth > 0: pos (2.0)
|   |   |   |   |   |   |   |   |   |   |   |   |   |   |   |   jok > 0: neg (6.0/1.0)
|   |   |   |   |   |   |   |   |   |   |   |   |   |   emot > 1.218108
|   |   |   |   |   |   |   |   |   |   |   |   |   |   |   mater <= 0: pos (38.0/1.0)
|   |   |   |   |   |   |   |   |   |   |   |   |   |   |   mater > 0
|   |   |   |   |   |   |   |   |   |   |   |   |   |   |   |   abl <= 0: neg (4.0)
|   |   |   |   |   |   |   |   |   |   |   |   |   |   |   |   abl > 0: pos (3.0)
|   |   |   |   |   |   |   |   |   |   |   |   |   suppos > 1.14207
|   |   |   |   |   |   |   |   |   |   |   |   |   |   david <= 0
|   |   |   |   |   |   |   |   |   |   |   |   |   |   |   littl <= 0.542026: neg (21.0)
|   |   |   |   |   |   |   |   |   |   |   |   |   |   |   littl > 0.542026: pos (2.0)
|   |   |   |   |   |   |   |   |   |   |   |   |   |   david > 0: pos (2.0)
|   |   |   |   |   |   |   |   |   |   |   |   dream > 1.562212
|   |   |   |   |   |   |   |   |   |   |   |   |   stag <= 0: pos (23.0)
|   |   |   |   |   |   |   |   |   |   |   |   |   stag > 0: neg (2.0)
|   |   |   |   |   |   |   |   |   |   |   war > 2.152176
|   |   |   |   |   |   |   |   |   |   |   |   girlfriens <= 0: pos (35.0/1.0)
|   |   |   |   |   |   |   |   |   |   |   |   girlfriens > 0: neg (2.0)
|   |   |   |   |   |   |   |   |   |   lif > 1.464685: pos (27.0/1.0)
|   |   |   |   |   |   |   |   |   unfun > 0
|   |   |   |   |   |   |   |   |   |   romant <= 0: neg (21.0/1.0)
|   |   |   |   |   |   |   |   |   |   romant > 0: pos (4.0)
|   |   |   |   |   |   |   |   great > 1.414385: pos (26.0/1.0)
|   |   |   |   |   |   |   why > 1.356162
|   |   |   |   |   |   |   |   doing <= 0
|   |   |   |   |   |   |   |   |   hollywood <= 0: neg (22.0)
|   |   |   |   |   |   |   |   |   hollywood > 0: pos (4.0/1.0)
|   |   |   |   |   |   |   |   doing > 0: pos (3.0)
|   |   |   |   |   |   seen > 1.270843
|   |   |   |   |   |   |   over <= 0.87725: pos (28.0)
|   |   |   |   |   |   |   over > 0.87725: neg (3.0/1.0)
|   |   |   |   |   hi > 0.360738
|   |   |   |   |   |   room <= 1.416844: pos (41.0)
|   |   |   |   |   |   room > 1.416844: neg (3.0/1.0)
|   |   |   |   lam > 0
|   |   |   |   |   cinematograph <= 0
|   |   |   |   |   |   and <= 0.003403
|   |   |   |   |   |   |   deserv <= 0: neg (39.0/1.0)
|   |   |   |   |   |   |   deserv > 0
|   |   |   |   |   |   |   |   anyon <= 0: pos (4.0)
|   |   |   |   |   |   |   |   anyon > 0: neg (2.0)
|   |   |   |   |   |   and > 0.003403: pos (4.0)
|   |   |   |   |   cinematograph > 0: pos (6.0)
|   |   |   overal > 0
|   |   |   |   spent <= 0
|   |   |   |   |   execut <= 0
|   |   |   |   |   |   nor <= 0
|   |   |   |   |   |   |   aw <= 0: pos (81.0/1.0)
|   |   |   |   |   |   |   aw > 0
|   |   |   |   |   |   |   |   being <= 0: pos (4.0)
|   |   |   |   |   |   |   |   being > 0: neg (2.0)
|   |   |   |   |   |   nor > 0
|   |   |   |   |   |   |   each <= 0: neg (2.0)
|   |   |   |   |   |   |   each > 0: pos (3.0)
|   |   |   |   |   execut > 0
|   |   |   |   |   |   support <= 0: pos (7.0/1.0)
|   |   |   |   |   |   support > 0: neg (3.0)
|   |   |   |   spent > 0: neg (6.0/1.0)
|   |   worst > 0
|   |   |   pulp <= 0
|   |   |   |   brilli <= 0
|   |   |   |   |   crit <= 0
|   |   |   |   |   |   oft <= 1.336096
|   |   |   |   |   |   |   few <= 0.730658
|   |   |   |   |   |   |   |   complec <= 0
|   |   |   |   |   |   |   |   |   sometim <= 0
|   |   |   |   |   |   |   |   |   |   americ <= 0: neg (81.0/1.0)
|   |   |   |   |   |   |   |   |   |   americ > 0
|   |   |   |   |   |   |   |   |   |   |   after <= 0: neg (4.0)
|   |   |   |   |   |   |   |   |   |   |   after > 0: pos (2.0)
|   |   |   |   |   |   |   |   |   sometim > 0
|   |   |   |   |   |   |   |   |   |   als <= 0: neg (3.0)
|   |   |   |   |   |   |   |   |   |   als > 0: pos (2.0)
|   |   |   |   |   |   |   |   complec > 0
|   |   |   |   |   |   |   |   |   allow <= 0: neg (5.0)
|   |   |   |   |   |   |   |   |   allow > 0: pos (3.0)
|   |   |   |   |   |   |   few > 0.730658
|   |   |   |   |   |   |   |   ar <= 0.126175: neg (3.0)
|   |   |   |   |   |   |   |   ar > 0.126175: pos (4.0)
|   |   |   |   |   |   oft > 1.336096
|   |   |   |   |   |   |   book <= 0: pos (4.0)
|   |   |   |   |   |   |   book > 0: neg (2.0)
|   |   |   |   |   crit > 0
|   |   |   |   |   |   last <= 0: pos (9.0/1.0)
|   |   |   |   |   |   last > 0: neg (3.0)
|   |   |   |   brilli > 0
|   |   |   |   |   anim <= 0: pos (8.0)
|   |   |   |   |   anim > 0: neg (2.0)
|   |   |   pulp > 0: pos (8.0/1.0)
|   stupid > 0
|   |   brilli <= 0
|   |   |   understand <= 0
|   |   |   |   remark <= 0
|   |   |   |   |   king <= 0
|   |   |   |   |   |   giv <= 0
|   |   |   |   |   |   |   ben <= 0
|   |   |   |   |   |   |   |   impres <= 0: neg (40.0/2.0)
|   |   |   |   |   |   |   |   impres > 0
|   |   |   |   |   |   |   |   |   almost <= 0
|   |   |   |   |   |   |   |   |   |   awa <= 0: pos (5.0)
|   |   |   |   |   |   |   |   |   |   awa > 0: neg (2.0)
|   |   |   |   |   |   |   |   |   almost > 0: neg (3.0)
|   |   |   |   |   |   |   ben > 0: pos (4.0/1.0)
|   |   |   |   |   |   giv > 0: neg (70.0)
|   |   |   |   |   king > 0
|   |   |   |   |   |   abl <= 0: neg (4.0)
|   |   |   |   |   |   abl > 0: pos (3.0)
|   |   |   |   remark > 0
|   |   |   |   |   cast <= 0: pos (7.0/1.0)
|   |   |   |   |   cast > 0: neg (5.0)
|   |   |   understand > 0
|   |   |   |   t <= 0.278696: pos (11.0/1.0)
|   |   |   |   t > 0.278696: neg (7.0)
|   |   brilli > 0
|   |   |   say <= 0: neg (3.0)
|   |   |   say > 0: pos (6.0)
wast > 0
|   search <= 0
|   |   portray <= 0
|   |   |   art <= 0
|   |   |   |   even <= 0.302338
|   |   |   |   |   chang <= 0
|   |   |   |   |   |   job <= 0
|   |   |   |   |   |   |   thank <= 0
|   |   |   |   |   |   |   |   cour <= 0.932389: neg (77.0/2.0)
|   |   |   |   |   |   |   |   cour > 0.932389
|   |   |   |   |   |   |   |   |   decent <= 0: neg (3.0)
|   |   |   |   |   |   |   |   |   decent > 0: pos (2.0)
|   |   |   |   |   |   |   thank > 0
|   |   |   |   |   |   |   |   appear <= 0: pos (3.0)
|   |   |   |   |   |   |   |   appear > 0: neg (4.0)
|   |   |   |   |   |   job > 0
|   |   |   |   |   |   |   first <= 0
|   |   |   |   |   |   |   |   hold <= 0: neg (8.0)
|   |   |   |   |   |   |   |   hold > 0: pos (2.0)
|   |   |   |   |   |   |   first > 0: pos (3.0)
|   |   |   |   |   chang > 0
|   |   |   |   |   |   knew <= 0: pos (6.0/1.0)
|   |   |   |   |   |   knew > 0: neg (4.0)
|   |   |   |   even > 0.302338: neg (82.0)
|   |   |   art > 0
|   |   |   |   hop <= 0
|   |   |   |   |   chr <= 0
|   |   |   |   |   |   subplot <= 0: neg (15.0)
|   |   |   |   |   |   subplot > 0: pos (2.0)
|   |   |   |   |   chr > 0: pos (3.0)
|   |   |   |   hop > 0: pos (5.0)
|   |   portray > 0
|   |   |   ens <= 0: neg (7.0)
|   |   |   ens > 0: pos (7.0/1.0)
|   search > 0
|   |   better <= 0: pos (6.0)
|   |   better > 0: neg (7.0/1.0)

Number of Leaves  : 	184

Size of the tree : 	367


Time taken to build model: 24.51 seconds

=== Stratified cross-validation ===
=== Summary ===

Correctly Classified Instances        1319               65.95   %
Incorrectly Classified Instances       681               34.05   %
Kappa statistic                          0.319 
Mean absolute error                      0.3431
Root mean squared error                  0.568 
Relative absolute error                 68.6158 %
Root relative squared error            113.6032 %
Total Number of Instances             2000     

=== Detailed Accuracy By Class ===

                 TP Rate  FP Rate  Precision  Recall   F-Measure  MCC      ROC Area  PRC Area  Class
                 0.656    0.337    0.661      0.656    0.658      0.319    0.657     0.615     neg
                 0.663    0.344    0.658      0.663    0.661      0.319    0.657     0.615     pos
Weighted Avg.    0.660    0.341    0.660      0.660    0.659      0.319    0.657     0.615     

=== Confusion Matrix ===

   a   b   <-- classified as
 656 344 |   a = neg
 337 663 |   b = pos

