=== Run information ===

Scheme:       weka.classifiers.trees.J48 -C 0.25 -M 2
Relation:     C__movie_review_polarity-weka.filters.unsupervised.attribute.StringToWordVector-R1-W1000-prune-rate-1.0-C-T-I-N0-stemmerweka.core.stemmers.LovinsStemmer-stopwords-handlerweka.core.stopwords.Null-M5-tokenizerweka.core.tokenizers.NGramTokenizer -max 3 -min 1 -delimiters " \r\n\t.,;:\'\"()?!"-weka.filters.unsupervised.attribute.Reorder-R2,3,4,5,6,7,8,9,10,11,12,13,14,15,16,17,18,19,20,21,22,23,24,25,26,27,28,29,30,31,32,33,34,35,36,37,38,39,40,41,42,43,44,45,46,47,48,49,50,51,52,53,54,55,56,57,58,59,60,61,62,63,64,65,66,67,68,69,70,71,72,73,74,75,76,77,78,79,80,81,82,83,84,85,86,87,88,89,90,91,92,93,94,95,96,97,98,99,100,101,102,103,104,105,106,107,108,109,110,111,112,113,114,115,116,117,118,119,120,121,122,123,124,125,126,127,128,129,130,131,132,133,134,135,136,137,138,139,140,141,142,143,144,145,146,147,148,149,150,151,152,153,154,155,156,157,158,159,160,161,162,163,164,165,166,167,168,169,170,171,172,173,174,175,176,177,178,179,180,181,182,183,184,185,186,187,188,189,190,191,192,193,194,195,196,197,198,199,200,201,202,203,204,205,206,207,208,209,210,211,212,213,214,215,216,217,218,219,220,221,222,223,224,225,226,227,228,229,230,231,232,233,234,235,236,237,238,239,240,241,242,243,244,245,246,247,248,249,250,251,252,253,254,255,256,257,258,259,260,261,262,263,264,265,266,267,268,269,270,271,272,273,274,275,276,277,278,279,280,281,282,283,284,285,286,287,288,289,290,291,292,293,294,295,296,297,298,299,300,301,302,303,304,305,306,307,308,309,310,311,312,313,314,315,316,317,318,319,320,321,322,323,324,325,326,327,328,329,330,331,332,333,334,335,336,337,338,339,340,341,342,343,344,345,346,347,348,349,350,351,352,353,354,355,356,357,358,359,360,361,362,363,364,365,366,367,368,369,370,371,372,373,374,375,376,377,378,379,380,381,382,383,384,385,386,387,388,389,390,391,392,393,394,395,396,397,398,399,400,401,402,403,404,405,406,407,408,409,410,411,412,413,414,415,416,417,418,419,420,421,422,423,424,425,426,427,428,429,430,431,432,433,434,435,436,437,438,439,440,441,442,443,444,445,446,447,448,449,450,451,452,453,454,455,456,457,458,459,460,461,462,463,464,465,466,467,468,469,470,471,472,473,474,475,476,477,478,479,480,481,482,483,484,485,486,487,488,489,490,491,492,493,494,495,496,497,498,499,500,501,502,503,504,505,506,507,508,509,510,511,512,513,514,515,516,517,518,519,520,521,522,523,524,525,526,527,528,529,530,531,532,533,534,535,536,537,538,539,540,541,542,543,544,545,546,547,548,549,550,551,552,553,554,555,556,557,558,559,560,561,562,563,564,565,566,567,568,569,570,571,572,573,574,575,576,577,578,579,580,581,582,583,584,585,586,587,588,589,590,591,592,593,594,595,596,597,598,599,600,601,602,603,604,605,606,607,608,609,610,611,612,613,614,615,616,617,618,619,620,621,622,623,624,625,626,627,628,629,630,631,632,633,634,635,636,637,638,639,640,641,642,643,644,645,646,647,648,649,650,651,652,653,654,655,656,657,658,659,660,661,662,663,664,665,666,667,668,669,670,671,672,673,674,675,676,677,678,679,680,681,682,683,684,685,686,687,688,689,690,691,692,693,694,695,696,697,698,699,700,701,702,703,704,705,706,707,708,709,710,711,712,713,714,715,716,717,718,719,720,721,722,723,724,725,726,727,728,729,730,731,732,733,734,735,736,737,738,739,740,741,742,743,744,745,746,747,748,749,750,751,752,753,754,755,756,757,758,759,760,761,762,763,764,765,766,767,768,769,770,771,772,773,774,775,776,777,778,779,780,781,782,783,784,785,786,787,788,789,790,791,792,793,794,795,796,797,798,799,800,801,802,803,804,805,806,807,808,809,810,811,812,813,814,815,816,817,818,819,820,821,822,823,824,825,826,827,828,829,830,831,832,833,834,835,836,837,838,839,840,841,842,843,844,845,846,847,848,849,850,851,852,853,854,855,856,857,858,859,860,861,862,863,864,865,866,867,868,869,870,871,872,873,874,875,876,877,878,879,880,881,882,883,884,885,886,887,888,889,890,891,892,893,894,895,896,897,898,899,900,901,902,903,904,905,906,907,908,909,910,911,912,913,914,915,916,917,918,919,920,921,922,923,924,925,926,927,928,929,930,931,932,933,934,935,936,937,938,939,940,941,942,943,944,945,946,947,948,949,950,951,952,953,954,955,956,957,958,959,960,961,962,963,964,965,966,967,968,969,970,971,972,973,974,975,976,977,978,979,980,981,982,983,984,985,986,987,988,989,990,991,992,993,994,995,996,997,998,999,1000,1001,1002,1003,1004,1005,1006,1007,1008,1009,1010,1011,1012,1013,1014,1015,1016,1017,1018,1019,1020,1021,1022,1023,1024,1025,1026,1027,1028,1029,1030,1031,1032,1033,1034,1035,1036,1037,1038,1039,1040,1041,1042,1043,1044,1045,1046,1047,1048,1049,1050,1051,1052,1053,1054,1055,1056,1057,1058,1059,1060,1061,1062,1063,1064,1065,1066,1067,1068,1069,1070,1071,1072,1073,1074,1075,1076,1077,1078,1079,1080,1081,1082,1083,1084,1085,1086,1087,1088,1089,1090,1091,1092,1093,1094,1095,1096,1097,1098,1099,1100,1101,1102,1103,1104,1105,1106,1107,1108,1109,1110,1111,1112,1113,1114,1115,1116,1117,1118,1119,1120,1121,1122,1123,1124,1125,1126,1127,1128,1129,1130,1131,1132,1133,1134,1135,1136,1137,1138,1139,1140,1141,1142,1143,1144,1145,1146,1147,1148,1149,1150,1151,1152,1153,1154,1155,1
Instances:    2000
Attributes:   1155
              [list of attributes omitted]
Test mode:    10-fold cross-validation

=== Classifier model (full training set) ===

J48 pruned tree
------------------

wast <= 0
|   stupid <= 0
|   |   worst <= 0
|   |   |   sense of <= 1.899979
|   |   |   |   life  <= 2.08345
|   |   |   |   |   of the best <= 0
|   |   |   |   |   |   hi <= 0.360738
|   |   |   |   |   |   |   dream <= 1.916289
|   |   |   |   |   |   |   |   polit <= 2.149514
|   |   |   |   |   |   |   |   |   aw <= 0
|   |   |   |   |   |   |   |   |   |   excel <= 0
|   |   |   |   |   |   |   |   |   |   |   dl <= 0
|   |   |   |   |   |   |   |   |   |   |   |   ridicl <= 0
|   |   |   |   |   |   |   |   |   |   |   |   |   most <= 0.643822
|   |   |   |   |   |   |   |   |   |   |   |   |   |   is v <= 0
|   |   |   |   |   |   |   |   |   |   |   |   |   |   |   noth <= 0
|   |   |   |   |   |   |   |   |   |   |   |   |   |   |   |   great <= 0.707193
|   |   |   |   |   |   |   |   |   |   |   |   |   |   |   |   |   t ev <= 0
|   |   |   |   |   |   |   |   |   |   |   |   |   |   |   |   |   |   poor <= 0
|   |   |   |   |   |   |   |   |   |   |   |   |   |   |   |   |   |   |   deserv <= 0
|   |   |   |   |   |   |   |   |   |   |   |   |   |   |   |   |   |   |   |   color <= 0
|   |   |   |   |   |   |   |   |   |   |   |   |   |   |   |   |   |   |   |   |   clich <= 0
|   |   |   |   |   |   |   |   |   |   |   |   |   |   |   |   |   |   |   |   |   |   would hav <= 0
|   |   |   |   |   |   |   |   |   |   |   |   |   |   |   |   |   |   |   |   |   |   |   i v <= 0
|   |   |   |   |   |   |   |   |   |   |   |   |   |   |   |   |   |   |   |   |   |   |   |   les <= 0.722748
|   |   |   |   |   |   |   |   |   |   |   |   |   |   |   |   |   |   |   |   |   |   |   |   |   flaw <= 0
|   |   |   |   |   |   |   |   |   |   |   |   |   |   |   |   |   |   |   |   |   |   |   |   |   |   vide <= 0
|   |   |   |   |   |   |   |   |   |   |   |   |   |   |   |   |   |   |   |   |   |   |   |   |   |   |   non <= 0
|   |   |   |   |   |   |   |   |   |   |   |   |   |   |   |   |   |   |   |   |   |   |   |   |   |   |   |   als <= 0.687169
|   |   |   |   |   |   |   |   |   |   |   |   |   |   |   |   |   |   |   |   |   |   |   |   |   |   |   |   |   as the <= 0
|   |   |   |   |   |   |   |   |   |   |   |   |   |   |   |   |   |   |   |   |   |   |   |   |   |   |   |   |   |   fiv <= 0
|   |   |   |   |   |   |   |   |   |   |   |   |   |   |   |   |   |   |   |   |   |   |   |   |   |   |   |   |   |   |   sil <= 0
|   |   |   |   |   |   |   |   |   |   |   |   |   |   |   |   |   |   |   |   |   |   |   |   |   |   |   |   |   |   |   |   du <= 0
|   |   |   |   |   |   |   |   |   |   |   |   |   |   |   |   |   |   |   |   |   |   |   |   |   |   |   |   |   |   |   |   |   adult <= 0
|   |   |   |   |   |   |   |   |   |   |   |   |   |   |   |   |   |   |   |   |   |   |   |   |   |   |   |   |   |   |   |   |   |   learn <= 0
|   |   |   |   |   |   |   |   |   |   |   |   |   |   |   |   |   |   |   |   |   |   |   |   |   |   |   |   |   |   |   |   |   |   |   if th <= 0
|   |   |   |   |   |   |   |   |   |   |   |   |   |   |   |   |   |   |   |   |   |   |   |   |   |   |   |   |   |   |   |   |   |   |   |   being <= 0.587418
|   |   |   |   |   |   |   |   |   |   |   |   |   |   |   |   |   |   |   |   |   |   |   |   |   |   |   |   |   |   |   |   |   |   |   |   |   georg <= 0
|   |   |   |   |   |   |   |   |   |   |   |   |   |   |   |   |   |   |   |   |   |   |   |   |   |   |   |   |   |   |   |   |   |   |   |   |   |   an <= 0.174945
|   |   |   |   |   |   |   |   |   |   |   |   |   |   |   |   |   |   |   |   |   |   |   |   |   |   |   |   |   |   |   |   |   |   |   |   |   |   |   cool <= 0
|   |   |   |   |   |   |   |   |   |   |   |   |   |   |   |   |   |   |   |   |   |   |   |   |   |   |   |   |   |   |   |   |   |   |   |   |   |   |   |   edit <= 0
|   |   |   |   |   |   |   |   |   |   |   |   |   |   |   |   |   |   |   |   |   |   |   |   |   |   |   |   |   |   |   |   |   |   |   |   |   |   |   |   |   particl <= 0
|   |   |   |   |   |   |   |   |   |   |   |   |   |   |   |   |   |   |   |   |   |   |   |   |   |   |   |   |   |   |   |   |   |   |   |   |   |   |   |   |   |   mayb <= 0
|   |   |   |   |   |   |   |   |   |   |   |   |   |   |   |   |   |   |   |   |   |   |   |   |   |   |   |   |   |   |   |   |   |   |   |   |   |   |   |   |   |   |   bob <= 0
|   |   |   |   |   |   |   |   |   |   |   |   |   |   |   |   |   |   |   |   |   |   |   |   |   |   |   |   |   |   |   |   |   |   |   |   |   |   |   |   |   |   |   |   walk <= 0
|   |   |   |   |   |   |   |   |   |   |   |   |   |   |   |   |   |   |   |   |   |   |   |   |   |   |   |   |   |   |   |   |   |   |   |   |   |   |   |   |   |   |   |   |   fight <= 0
|   |   |   |   |   |   |   |   |   |   |   |   |   |   |   |   |   |   |   |   |   |   |   |   |   |   |   |   |   |   |   |   |   |   |   |   |   |   |   |   |   |   |   |   |   |   le <= 0
|   |   |   |   |   |   |   |   |   |   |   |   |   |   |   |   |   |   |   |   |   |   |   |   |   |   |   |   |   |   |   |   |   |   |   |   |   |   |   |   |   |   |   |   |   |   |   viewer <= 0
|   |   |   |   |   |   |   |   |   |   |   |   |   |   |   |   |   |   |   |   |   |   |   |   |   |   |   |   |   |   |   |   |   |   |   |   |   |   |   |   |   |   |   |   |   |   |   |   kil <= 0: pos (38.0)
|   |   |   |   |   |   |   |   |   |   |   |   |   |   |   |   |   |   |   |   |   |   |   |   |   |   |   |   |   |   |   |   |   |   |   |   |   |   |   |   |   |   |   |   |   |   |   |   kil > 0
|   |   |   |   |   |   |   |   |   |   |   |   |   |   |   |   |   |   |   |   |   |   |   |   |   |   |   |   |   |   |   |   |   |   |   |   |   |   |   |   |   |   |   |   |   |   |   |   |   appear <= 0: neg (6.0)
|   |   |   |   |   |   |   |   |   |   |   |   |   |   |   |   |   |   |   |   |   |   |   |   |   |   |   |   |   |   |   |   |   |   |   |   |   |   |   |   |   |   |   |   |   |   |   |   |   appear > 0: pos (3.0/1.0)
|   |   |   |   |   |   |   |   |   |   |   |   |   |   |   |   |   |   |   |   |   |   |   |   |   |   |   |   |   |   |   |   |   |   |   |   |   |   |   |   |   |   |   |   |   |   |   viewer > 0: neg (5.0/1.0)
|   |   |   |   |   |   |   |   |   |   |   |   |   |   |   |   |   |   |   |   |   |   |   |   |   |   |   |   |   |   |   |   |   |   |   |   |   |   |   |   |   |   |   |   |   |   le > 0
|   |   |   |   |   |   |   |   |   |   |   |   |   |   |   |   |   |   |   |   |   |   |   |   |   |   |   |   |   |   |   |   |   |   |   |   |   |   |   |   |   |   |   |   |   |   |   do <= 0: neg (6.0)
|   |   |   |   |   |   |   |   |   |   |   |   |   |   |   |   |   |   |   |   |   |   |   |   |   |   |   |   |   |   |   |   |   |   |   |   |   |   |   |   |   |   |   |   |   |   |   do > 0: pos (3.0)
|   |   |   |   |   |   |   |   |   |   |   |   |   |   |   |   |   |   |   |   |   |   |   |   |   |   |   |   |   |   |   |   |   |   |   |   |   |   |   |   |   |   |   |   |   fight > 0: neg (3.0)
|   |   |   |   |   |   |   |   |   |   |   |   |   |   |   |   |   |   |   |   |   |   |   |   |   |   |   |   |   |   |   |   |   |   |   |   |   |   |   |   |   |   |   |   walk > 0: neg (6.0/1.0)
|   |   |   |   |   |   |   |   |   |   |   |   |   |   |   |   |   |   |   |   |   |   |   |   |   |   |   |   |   |   |   |   |   |   |   |   |   |   |   |   |   |   |   bob > 0: neg (7.0/1.0)
|   |   |   |   |   |   |   |   |   |   |   |   |   |   |   |   |   |   |   |   |   |   |   |   |   |   |   |   |   |   |   |   |   |   |   |   |   |   |   |   |   |   mayb > 0: neg (7.0)
|   |   |   |   |   |   |   |   |   |   |   |   |   |   |   |   |   |   |   |   |   |   |   |   |   |   |   |   |   |   |   |   |   |   |   |   |   |   |   |   |   particl > 0: pos (8.0)
|   |   |   |   |   |   |   |   |   |   |   |   |   |   |   |   |   |   |   |   |   |   |   |   |   |   |   |   |   |   |   |   |   |   |   |   |   |   |   |   edit > 0: neg (9.0/1.0)
|   |   |   |   |   |   |   |   |   |   |   |   |   |   |   |   |   |   |   |   |   |   |   |   |   |   |   |   |   |   |   |   |   |   |   |   |   |   |   cool > 0: pos (6.0)
|   |   |   |   |   |   |   |   |   |   |   |   |   |   |   |   |   |   |   |   |   |   |   |   |   |   |   |   |   |   |   |   |   |   |   |   |   |   an > 0.174945: neg (7.0)
|   |   |   |   |   |   |   |   |   |   |   |   |   |   |   |   |   |   |   |   |   |   |   |   |   |   |   |   |   |   |   |   |   |   |   |   |   georg > 0: pos (6.0)
|   |   |   |   |   |   |   |   |   |   |   |   |   |   |   |   |   |   |   |   |   |   |   |   |   |   |   |   |   |   |   |   |   |   |   |   being > 0.587418: pos (9.0)
|   |   |   |   |   |   |   |   |   |   |   |   |   |   |   |   |   |   |   |   |   |   |   |   |   |   |   |   |   |   |   |   |   |   |   if th > 0: neg (7.0)
|   |   |   |   |   |   |   |   |   |   |   |   |   |   |   |   |   |   |   |   |   |   |   |   |   |   |   |   |   |   |   |   |   |   learn > 0: pos (19.0/1.0)
|   |   |   |   |   |   |   |   |   |   |   |   |   |   |   |   |   |   |   |   |   |   |   |   |   |   |   |   |   |   |   |   |   adult > 0: pos (9.0)
|   |   |   |   |   |   |   |   |   |   |   |   |   |   |   |   |   |   |   |   |   |   |   |   |   |   |   |   |   |   |   |   du > 0: pos (10.0)
|   |   |   |   |   |   |   |   |   |   |   |   |   |   |   |   |   |   |   |   |   |   |   |   |   |   |   |   |   |   |   sil > 0
|   |   |   |   |   |   |   |   |   |   |   |   |   |   |   |   |   |   |   |   |   |   |   |   |   |   |   |   |   |   |   |   di <= 0: neg (10.0/1.0)
|   |   |   |   |   |   |   |   |   |   |   |   |   |   |   |   |   |   |   |   |   |   |   |   |   |   |   |   |   |   |   |   di > 0: pos (2.0)
|   |   |   |   |   |   |   |   |   |   |   |   |   |   |   |   |   |   |   |   |   |   |   |   |   |   |   |   |   |   fiv > 0
|   |   |   |   |   |   |   |   |   |   |   |   |   |   |   |   |   |   |   |   |   |   |   |   |   |   |   |   |   |   |   dark <= 0: neg (9.0)
|   |   |   |   |   |   |   |   |   |   |   |   |   |   |   |   |   |   |   |   |   |   |   |   |   |   |   |   |   |   |   dark > 0: pos (2.0)
|   |   |   |   |   |   |   |   |   |   |   |   |   |   |   |   |   |   |   |   |   |   |   |   |   |   |   |   |   as the > 0: pos (17.0/1.0)
|   |   |   |   |   |   |   |   |   |   |   |   |   |   |   |   |   |   |   |   |   |   |   |   |   |   |   |   als > 0.687169: pos (14.0)
|   |   |   |   |   |   |   |   |   |   |   |   |   |   |   |   |   |   |   |   |   |   |   |   |   |   |   non > 0
|   |   |   |   |   |   |   |   |   |   |   |   |   |   |   |   |   |   |   |   |   |   |   |   |   |   |   |   hous <= 0: neg (11.0/1.0)
|   |   |   |   |   |   |   |   |   |   |   |   |   |   |   |   |   |   |   |   |   |   |   |   |   |   |   |   hous > 0: pos (2.0)
|   |   |   |   |   |   |   |   |   |   |   |   |   |   |   |   |   |   |   |   |   |   |   |   |   |   vide > 0
|   |   |   |   |   |   |   |   |   |   |   |   |   |   |   |   |   |   |   |   |   |   |   |   |   |   |   bod <= 0
|   |   |   |   |   |   |   |   |   |   |   |   |   |   |   |   |   |   |   |   |   |   |   |   |   |   |   |   the actor <= 0: neg (17.0/1.0)
|   |   |   |   |   |   |   |   |   |   |   |   |   |   |   |   |   |   |   |   |   |   |   |   |   |   |   |   the actor > 0: pos (2.0)
|   |   |   |   |   |   |   |   |   |   |   |   |   |   |   |   |   |   |   |   |   |   |   |   |   |   |   bod > 0: pos (3.0)
|   |   |   |   |   |   |   |   |   |   |   |   |   |   |   |   |   |   |   |   |   |   |   |   |   flaw > 0: pos (22.0/1.0)
|   |   |   |   |   |   |   |   |   |   |   |   |   |   |   |   |   |   |   |   |   |   |   |   les > 0.722748
|   |   |   |   |   |   |   |   |   |   |   |   |   |   |   |   |   |   |   |   |   |   |   |   |   a movi <= 0: neg (15.0/1.0)
|   |   |   |   |   |   |   |   |   |   |   |   |   |   |   |   |   |   |   |   |   |   |   |   |   a movi > 0: pos (3.0)
|   |   |   |   |   |   |   |   |   |   |   |   |   |   |   |   |   |   |   |   |   |   |   i v > 0
|   |   |   |   |   |   |   |   |   |   |   |   |   |   |   |   |   |   |   |   |   |   |   |   o <= 0: pos (26.0/1.0)
|   |   |   |   |   |   |   |   |   |   |   |   |   |   |   |   |   |   |   |   |   |   |   |   o > 0: neg (2.0)
|   |   |   |   |   |   |   |   |   |   |   |   |   |   |   |   |   |   |   |   |   |   would hav > 0
|   |   |   |   |   |   |   |   |   |   |   |   |   |   |   |   |   |   |   |   |   |   |   clear <= 0
|   |   |   |   |   |   |   |   |   |   |   |   |   |   |   |   |   |   |   |   |   |   |   |   return <= 0
|   |   |   |   |   |   |   |   |   |   |   |   |   |   |   |   |   |   |   |   |   |   |   |   |   it s  <= 1.062232: neg (29.0/1.0)
|   |   |   |   |   |   |   |   |   |   |   |   |   |   |   |   |   |   |   |   |   |   |   |   |   it s  > 1.062232: pos (3.0)
|   |   |   |   |   |   |   |   |   |   |   |   |   |   |   |   |   |   |   |   |   |   |   |   return > 0: pos (5.0)
|   |   |   |   |   |   |   |   |   |   |   |   |   |   |   |   |   |   |   |   |   |   |   clear > 0: pos (5.0)
|   |   |   |   |   |   |   |   |   |   |   |   |   |   |   |   |   |   |   |   |   clich > 0
|   |   |   |   |   |   |   |   |   |   |   |   |   |   |   |   |   |   |   |   |   |   wel <= 0.481841
|   |   |   |   |   |   |   |   |   |   |   |   |   |   |   |   |   |   |   |   |   |   |   histor <= 0
|   |   |   |   |   |   |   |   |   |   |   |   |   |   |   |   |   |   |   |   |   |   |   |   a new <= 0: neg (27.0)
|   |   |   |   |   |   |   |   |   |   |   |   |   |   |   |   |   |   |   |   |   |   |   |   a new > 0: pos (2.0)
|   |   |   |   |   |   |   |   |   |   |   |   |   |   |   |   |   |   |   |   |   |   |   histor > 0: pos (3.0)
|   |   |   |   |   |   |   |   |   |   |   |   |   |   |   |   |   |   |   |   |   |   wel > 0.481841: pos (6.0)
|   |   |   |   |   |   |   |   |   |   |   |   |   |   |   |   |   |   |   |   color > 0
|   |   |   |   |   |   |   |   |   |   |   |   |   |   |   |   |   |   |   |   |   against <= 0
|   |   |   |   |   |   |   |   |   |   |   |   |   |   |   |   |   |   |   |   |   |   of  <= 0.618515: pos (27.0)
|   |   |   |   |   |   |   |   |   |   |   |   |   |   |   |   |   |   |   |   |   |   of  > 0.618515: neg (2.0)
|   |   |   |   |   |   |   |   |   |   |   |   |   |   |   |   |   |   |   |   |   against > 0: neg (2.0)
|   |   |   |   |   |   |   |   |   |   |   |   |   |   |   |   |   |   |   deserv > 0
|   |   |   |   |   |   |   |   |   |   |   |   |   |   |   |   |   |   |   |   dead <= 0
|   |   |   |   |   |   |   |   |   |   |   |   |   |   |   |   |   |   |   |   |   with <= 0.019685
|   |   |   |   |   |   |   |   |   |   |   |   |   |   |   |   |   |   |   |   |   |   actor <= 0: neg (3.0)
|   |   |   |   |   |   |   |   |   |   |   |   |   |   |   |   |   |   |   |   |   |   actor > 0: pos (3.0)
|   |   |   |   |   |   |   |   |   |   |   |   |   |   |   |   |   |   |   |   |   with > 0.019685: pos (34.0)
|   |   |   |   |   |   |   |   |   |   |   |   |   |   |   |   |   |   |   |   dead > 0: neg (4.0/1.0)
|   |   |   |   |   |   |   |   |   |   |   |   |   |   |   |   |   |   poor > 0
|   |   |   |   |   |   |   |   |   |   |   |   |   |   |   |   |   |   |   and it  <= 0
|   |   |   |   |   |   |   |   |   |   |   |   |   |   |   |   |   |   |   |   god <= 0
|   |   |   |   |   |   |   |   |   |   |   |   |   |   |   |   |   |   |   |   |   alway <= 1.060629
|   |   |   |   |   |   |   |   |   |   |   |   |   |   |   |   |   |   |   |   |   |   jok <= 0: neg (29.0/1.0)
|   |   |   |   |   |   |   |   |   |   |   |   |   |   |   |   |   |   |   |   |   |   jok > 0: pos (2.0)
|   |   |   |   |   |   |   |   |   |   |   |   |   |   |   |   |   |   |   |   |   alway > 1.060629: pos (3.0)
|   |   |   |   |   |   |   |   |   |   |   |   |   |   |   |   |   |   |   |   god > 0: pos (2.0)
|   |   |   |   |   |   |   |   |   |   |   |   |   |   |   |   |   |   |   and it  > 0: pos (4.0)
|   |   |   |   |   |   |   |   |   |   |   |   |   |   |   |   |   t ev > 0
|   |   |   |   |   |   |   |   |   |   |   |   |   |   |   |   |   |   simp <= 0
|   |   |   |   |   |   |   |   |   |   |   |   |   |   |   |   |   |   |   fight <= 0: neg (22.0/1.0)
|   |   |   |   |   |   |   |   |   |   |   |   |   |   |   |   |   |   |   fight > 0: pos (2.0)
|   |   |   |   |   |   |   |   |   |   |   |   |   |   |   |   |   |   simp > 0: pos (4.0)
|   |   |   |   |   |   |   |   |   |   |   |   |   |   |   |   great > 0.707193
|   |   |   |   |   |   |   |   |   |   |   |   |   |   |   |   |   should hav <= 0
|   |   |   |   |   |   |   |   |   |   |   |   |   |   |   |   |   |   of it <= 0: pos (41.0)
|   |   |   |   |   |   |   |   |   |   |   |   |   |   |   |   |   |   of it > 0
|   |   |   |   |   |   |   |   |   |   |   |   |   |   |   |   |   |   |   plac <= 0: neg (2.0)
|   |   |   |   |   |   |   |   |   |   |   |   |   |   |   |   |   |   |   plac > 0: pos (5.0)
|   |   |   |   |   |   |   |   |   |   |   |   |   |   |   |   |   should hav > 0: neg (4.0/1.0)
|   |   |   |   |   |   |   |   |   |   |   |   |   |   |   noth > 0
|   |   |   |   |   |   |   |   |   |   |   |   |   |   |   |   this movie  <= 0
|   |   |   |   |   |   |   |   |   |   |   |   |   |   |   |   |   by <= 0.231142
|   |   |   |   |   |   |   |   |   |   |   |   |   |   |   |   |   |   should hav <= 0
|   |   |   |   |   |   |   |   |   |   |   |   |   |   |   |   |   |   |   quit <= 0.965077
|   |   |   |   |   |   |   |   |   |   |   |   |   |   |   |   |   |   |   |   the whol <= 0
|   |   |   |   |   |   |   |   |   |   |   |   |   |   |   |   |   |   |   |   |   is one of <= 0
|   |   |   |   |   |   |   |   |   |   |   |   |   |   |   |   |   |   |   |   |   |   perfect <= 0
|   |   |   |   |   |   |   |   |   |   |   |   |   |   |   |   |   |   |   |   |   |   |   didn <= 0
|   |   |   |   |   |   |   |   |   |   |   |   |   |   |   |   |   |   |   |   |   |   |   |   it h <= 0
|   |   |   |   |   |   |   |   |   |   |   |   |   |   |   |   |   |   |   |   |   |   |   |   |   ben <= 0
|   |   |   |   |   |   |   |   |   |   |   |   |   |   |   |   |   |   |   |   |   |   |   |   |   |   doing <= 0
|   |   |   |   |   |   |   |   |   |   |   |   |   |   |   |   |   |   |   |   |   |   |   |   |   |   |   li <= 0
|   |   |   |   |   |   |   |   |   |   |   |   |   |   |   |   |   |   |   |   |   |   |   |   |   |   |   |   deep <= 0
|   |   |   |   |   |   |   |   |   |   |   |   |   |   |   |   |   |   |   |   |   |   |   |   |   |   |   |   |   i think <= 0
|   |   |   |   |   |   |   |   |   |   |   |   |   |   |   |   |   |   |   |   |   |   |   |   |   |   |   |   |   |   belief <= 0: neg (38.0)
|   |   |   |   |   |   |   |   |   |   |   |   |   |   |   |   |   |   |   |   |   |   |   |   |   |   |   |   |   |   belief > 0
|   |   |   |   |   |   |   |   |   |   |   |   |   |   |   |   |   |   |   |   |   |   |   |   |   |   |   |   |   |   |   the best <= 0: neg (11.0/1.0)
|   |   |   |   |   |   |   |   |   |   |   |   |   |   |   |   |   |   |   |   |   |   |   |   |   |   |   |   |   |   |   the best > 0: pos (2.0)
|   |   |   |   |   |   |   |   |   |   |   |   |   |   |   |   |   |   |   |   |   |   |   |   |   |   |   |   |   i think > 0: pos (3.0/1.0)
|   |   |   |   |   |   |   |   |   |   |   |   |   |   |   |   |   |   |   |   |   |   |   |   |   |   |   |   deep > 0
|   |   |   |   |   |   |   |   |   |   |   |   |   |   |   |   |   |   |   |   |   |   |   |   |   |   |   |   |   effect <= 0: neg (4.0)
|   |   |   |   |   |   |   |   |   |   |   |   |   |   |   |   |   |   |   |   |   |   |   |   |   |   |   |   |   effect > 0: pos (4.0)
|   |   |   |   |   |   |   |   |   |   |   |   |   |   |   |   |   |   |   |   |   |   |   |   |   |   |   li > 0
|   |   |   |   |   |   |   |   |   |   |   |   |   |   |   |   |   |   |   |   |   |   |   |   |   |   |   |   dur <= 0: neg (2.0)
|   |   |   |   |   |   |   |   |   |   |   |   |   |   |   |   |   |   |   |   |   |   |   |   |   |   |   |   dur > 0: pos (4.0)
|   |   |   |   |   |   |   |   |   |   |   |   |   |   |   |   |   |   |   |   |   |   |   |   |   |   doing > 0
|   |   |   |   |   |   |   |   |   |   |   |   |   |   |   |   |   |   |   |   |   |   |   |   |   |   |   al <= 0.138825: pos (6.0)
|   |   |   |   |   |   |   |   |   |   |   |   |   |   |   |   |   |   |   |   |   |   |   |   |   |   |   al > 0.138825: neg (2.0)
|   |   |   |   |   |   |   |   |   |   |   |   |   |   |   |   |   |   |   |   |   |   |   |   |   ben > 0: pos (4.0)
|   |   |   |   |   |   |   |   |   |   |   |   |   |   |   |   |   |   |   |   |   |   |   |   it h > 0: pos (6.0/1.0)
|   |   |   |   |   |   |   |   |   |   |   |   |   |   |   |   |   |   |   |   |   |   |   didn > 0: neg (16.0)
|   |   |   |   |   |   |   |   |   |   |   |   |   |   |   |   |   |   |   |   |   |   perfect > 0
|   |   |   |   |   |   |   |   |   |   |   |   |   |   |   |   |   |   |   |   |   |   |   of <= 0.002198: neg (3.0)
|   |   |   |   |   |   |   |   |   |   |   |   |   |   |   |   |   |   |   |   |   |   |   of > 0.002198: pos (11.0)
|   |   |   |   |   |   |   |   |   |   |   |   |   |   |   |   |   |   |   |   |   is one of > 0: pos (8.0/1.0)
|   |   |   |   |   |   |   |   |   |   |   |   |   |   |   |   |   |   |   |   the whol > 0: neg (13.0)
|   |   |   |   |   |   |   |   |   |   |   |   |   |   |   |   |   |   |   quit > 0.965077: pos (8.0/1.0)
|   |   |   |   |   |   |   |   |   |   |   |   |   |   |   |   |   |   should hav > 0: neg (10.0)
|   |   |   |   |   |   |   |   |   |   |   |   |   |   |   |   |   by > 0.231142: pos (10.0/1.0)
|   |   |   |   |   |   |   |   |   |   |   |   |   |   |   |   this movie  > 0: neg (12.0)
|   |   |   |   |   |   |   |   |   |   |   |   |   |   is v > 0
|   |   |   |   |   |   |   |   |   |   |   |   |   |   |   anno <= 0
|   |   |   |   |   |   |   |   |   |   |   |   |   |   |   |   nor <= 0
|   |   |   |   |   |   |   |   |   |   |   |   |   |   |   |   |   the script <= 0
|   |   |   |   |   |   |   |   |   |   |   |   |   |   |   |   |   |   i think <= 0: pos (46.0/1.0)
|   |   |   |   |   |   |   |   |   |   |   |   |   |   |   |   |   |   i think > 0
|   |   |   |   |   |   |   |   |   |   |   |   |   |   |   |   |   |   |   anyon <= 0: pos (3.0)
|   |   |   |   |   |   |   |   |   |   |   |   |   |   |   |   |   |   |   anyon > 0: neg (2.0)
|   |   |   |   |   |   |   |   |   |   |   |   |   |   |   |   |   the script > 0
|   |   |   |   |   |   |   |   |   |   |   |   |   |   |   |   |   |   clas <= 0: neg (4.0)
|   |   |   |   |   |   |   |   |   |   |   |   |   |   |   |   |   |   clas > 0: pos (3.0)
|   |   |   |   |   |   |   |   |   |   |   |   |   |   |   |   nor > 0: neg (4.0/1.0)
|   |   |   |   |   |   |   |   |   |   |   |   |   |   |   anno > 0: neg (5.0/1.0)
|   |   |   |   |   |   |   |   |   |   |   |   |   most > 0.643822
|   |   |   |   |   |   |   |   |   |   |   |   |   |   planet <= 0
|   |   |   |   |   |   |   |   |   |   |   |   |   |   |   wom <= 1.562212: pos (42.0/1.0)
|   |   |   |   |   |   |   |   |   |   |   |   |   |   |   wom > 1.562212: neg (3.0/1.0)
|   |   |   |   |   |   |   |   |   |   |   |   |   |   planet > 0: neg (4.0/1.0)
|   |   |   |   |   |   |   |   |   |   |   |   ridicl > 0
|   |   |   |   |   |   |   |   |   |   |   |   |   figur <= 0
|   |   |   |   |   |   |   |   |   |   |   |   |   |   ben <= 0
|   |   |   |   |   |   |   |   |   |   |   |   |   |   |   terrif <= 0
|   |   |   |   |   |   |   |   |   |   |   |   |   |   |   |   gon <= 0
|   |   |   |   |   |   |   |   |   |   |   |   |   |   |   |   |   gues <= 0
|   |   |   |   |   |   |   |   |   |   |   |   |   |   |   |   |   |   emot <= 1.218108
|   |   |   |   |   |   |   |   |   |   |   |   |   |   |   |   |   |   |   tak <= 0.894843
|   |   |   |   |   |   |   |   |   |   |   |   |   |   |   |   |   |   |   |   styl <= 0: neg (29.0)
|   |   |   |   |   |   |   |   |   |   |   |   |   |   |   |   |   |   |   |   styl > 0: pos (3.0/1.0)
|   |   |   |   |   |   |   |   |   |   |   |   |   |   |   |   |   |   |   tak > 0.894843: pos (2.0)
|   |   |   |   |   |   |   |   |   |   |   |   |   |   |   |   |   |   emot > 1.218108: pos (2.0)
|   |   |   |   |   |   |   |   |   |   |   |   |   |   |   |   |   gues > 0: pos (2.0)
|   |   |   |   |   |   |   |   |   |   |   |   |   |   |   |   gon > 0: pos (2.0)
|   |   |   |   |   |   |   |   |   |   |   |   |   |   |   terrif > 0: pos (4.0)
|   |   |   |   |   |   |   |   |   |   |   |   |   |   ben > 0: pos (5.0)
|   |   |   |   |   |   |   |   |   |   |   |   |   figur > 0: neg (16.0)
|   |   |   |   |   |   |   |   |   |   |   dl > 0
|   |   |   |   |   |   |   |   |   |   |   |   hilar <= 0
|   |   |   |   |   |   |   |   |   |   |   |   |   i d <= 1.973606
|   |   |   |   |   |   |   |   |   |   |   |   |   |   a man <= 0: neg (28.0/1.0)
|   |   |   |   |   |   |   |   |   |   |   |   |   |   a man > 0: pos (3.0/1.0)
|   |   |   |   |   |   |   |   |   |   |   |   |   i d > 1.973606: pos (2.0)
|   |   |   |   |   |   |   |   |   |   |   |   hilar > 0: pos (3.0)
|   |   |   |   |   |   |   |   |   |   excel > 0
|   |   |   |   |   |   |   |   |   |   |   jok <= 0
|   |   |   |   |   |   |   |   |   |   |   |   hand <= 1.06868
|   |   |   |   |   |   |   |   |   |   |   |   |   plot <= 1.084052
|   |   |   |   |   |   |   |   |   |   |   |   |   |   nar <= 2.036094: pos (65.0)
|   |   |   |   |   |   |   |   |   |   |   |   |   |   nar > 2.036094
|   |   |   |   |   |   |   |   |   |   |   |   |   |   |   better <= 0: neg (2.0)
|   |   |   |   |   |   |   |   |   |   |   |   |   |   |   better > 0: pos (3.0)
|   |   |   |   |   |   |   |   |   |   |   |   |   plot > 1.084052
|   |   |   |   |   |   |   |   |   |   |   |   |   |   along <= 0: neg (4.0)
|   |   |   |   |   |   |   |   |   |   |   |   |   |   along > 0: pos (2.0)
|   |   |   |   |   |   |   |   |   |   |   |   hand > 1.06868: neg (4.0/1.0)
|   |   |   |   |   |   |   |   |   |   |   jok > 0
|   |   |   |   |   |   |   |   |   |   |   |   as th <= 0: neg (7.0)
|   |   |   |   |   |   |   |   |   |   |   |   as th > 0: pos (6.0/1.0)
|   |   |   |   |   |   |   |   |   aw > 0
|   |   |   |   |   |   |   |   |   |   alway <= 1.060629
|   |   |   |   |   |   |   |   |   |   |   to  <= 0.762194
|   |   |   |   |   |   |   |   |   |   |   |   memor <= 0
|   |   |   |   |   |   |   |   |   |   |   |   |   beaut <= 0
|   |   |   |   |   |   |   |   |   |   |   |   |   |   go <= 0.718412: neg (53.0)
|   |   |   |   |   |   |   |   |   |   |   |   |   |   go > 0.718412
|   |   |   |   |   |   |   |   |   |   |   |   |   |   |   - <= 0: neg (2.0)
|   |   |   |   |   |   |   |   |   |   |   |   |   |   |   - > 0: pos (2.0)
|   |   |   |   |   |   |   |   |   |   |   |   |   beaut > 0
|   |   |   |   |   |   |   |   |   |   |   |   |   |   actu <= 0: pos (3.0)
|   |   |   |   |   |   |   |   |   |   |   |   |   |   actu > 0: neg (3.0)
|   |   |   |   |   |   |   |   |   |   |   |   memor > 0
|   |   |   |   |   |   |   |   |   |   |   |   |   thing <= 0.511643: pos (6.0)
|   |   |   |   |   |   |   |   |   |   |   |   |   thing > 0.511643: neg (4.0)
|   |   |   |   |   |   |   |   |   |   |   to  > 0.762194: pos (5.0)
|   |   |   |   |   |   |   |   |   |   alway > 1.060629: pos (5.0)
|   |   |   |   |   |   |   |   polit > 2.149514
|   |   |   |   |   |   |   |   |   filmmaker <= 1.894626
|   |   |   |   |   |   |   |   |   |   better <= 0.746755: pos (29.0)
|   |   |   |   |   |   |   |   |   |   better > 0.746755
|   |   |   |   |   |   |   |   |   |   |   and <= 0.003297: neg (2.0)
|   |   |   |   |   |   |   |   |   |   |   and > 0.003297: pos (2.0)
|   |   |   |   |   |   |   |   |   filmmaker > 1.894626: neg (2.0)
|   |   |   |   |   |   |   dream > 1.916289
|   |   |   |   |   |   |   |   wants t <= 1.435836: pos (28.0/1.0)
|   |   |   |   |   |   |   |   wants t > 1.435836: neg (2.0)
|   |   |   |   |   |   hi > 0.360738
|   |   |   |   |   |   |   com <= 0.788957: pos (38.0)
|   |   |   |   |   |   |   com > 0.788957: neg (2.0)
|   |   |   |   |   of the best > 0
|   |   |   |   |   |   boy <= 1.326633
|   |   |   |   |   |   |   rac <= 0
|   |   |   |   |   |   |   |   wors <= 0
|   |   |   |   |   |   |   |   |   and <= 0.001947
|   |   |   |   |   |   |   |   |   |   cal <= 0: neg (3.0)
|   |   |   |   |   |   |   |   |   |   cal > 0: pos (2.0)
|   |   |   |   |   |   |   |   |   and > 0.001947
|   |   |   |   |   |   |   |   |   |   piec <= 0: pos (73.0)
|   |   |   |   |   |   |   |   |   |   piec > 0
|   |   |   |   |   |   |   |   |   |   |   on th <= 0: neg (2.0)
|   |   |   |   |   |   |   |   |   |   |   on th > 0: pos (10.0)
|   |   |   |   |   |   |   |   wors > 0
|   |   |   |   |   |   |   |   |   another <= 0: pos (3.0)
|   |   |   |   |   |   |   |   |   another > 0: neg (2.0)
|   |   |   |   |   |   |   rac > 0
|   |   |   |   |   |   |   |   stil <= 0: neg (3.0)
|   |   |   |   |   |   |   |   stil > 0: pos (5.0)
|   |   |   |   |   |   boy > 1.326633
|   |   |   |   |   |   |   belief <= 0: neg (3.0)
|   |   |   |   |   |   |   belief > 0: pos (3.0)
|   |   |   |   life  > 2.08345: pos (25.0/1.0)
|   |   |   sense of > 1.899979: pos (26.0/1.0)
|   |   worst > 0
|   |   |   order <= 1.350537
|   |   |   |   fict <= 0
|   |   |   |   |   crit <= 0
|   |   |   |   |   |   few <= 0.730658
|   |   |   |   |   |   |   detail <= 0
|   |   |   |   |   |   |   |   a young <= 0: neg (87.0/2.0)
|   |   |   |   |   |   |   |   a young > 0
|   |   |   |   |   |   |   |   |   black <= 0: neg (4.0)
|   |   |   |   |   |   |   |   |   black > 0: pos (3.0)
|   |   |   |   |   |   |   detail > 0
|   |   |   |   |   |   |   |   suppos <= 0: pos (4.0)
|   |   |   |   |   |   |   |   suppos > 0: neg (4.0)
|   |   |   |   |   |   few > 0.730658
|   |   |   |   |   |   |   around <= 0: pos (5.0)
|   |   |   |   |   |   |   around > 0: neg (3.0)
|   |   |   |   |   crit > 0
|   |   |   |   |   |   clas <= 0: pos (10.0/1.0)
|   |   |   |   |   |   clas > 0: neg (3.0)
|   |   |   |   fict > 0
|   |   |   |   |   person <= 0: pos (9.0)
|   |   |   |   |   person > 0: neg (3.0)
|   |   |   order > 1.350537: pos (8.0/1.0)
|   stupid > 0
|   |   the best <= 1.003795
|   |   |   natur <= 0
|   |   |   |   understand <= 0
|   |   |   |   |   trying t <= 1.098462
|   |   |   |   |   |   king <= 0
|   |   |   |   |   |   |   as th <= 0.457278
|   |   |   |   |   |   |   |   be <= 0
|   |   |   |   |   |   |   |   |   becom <= 0: neg (6.0)
|   |   |   |   |   |   |   |   |   becom > 0: pos (2.0)
|   |   |   |   |   |   |   |   be > 0: neg (92.0)
|   |   |   |   |   |   |   as th > 0.457278
|   |   |   |   |   |   |   |   giv <= 0: pos (5.0/1.0)
|   |   |   |   |   |   |   |   giv > 0: neg (11.0)
|   |   |   |   |   |   king > 0
|   |   |   |   |   |   |   abl <= 0: neg (4.0)
|   |   |   |   |   |   |   abl > 0: pos (3.0)
|   |   |   |   |   trying t > 1.098462
|   |   |   |   |   |   back <= 0: neg (4.0)
|   |   |   |   |   |   back > 0: pos (4.0)
|   |   |   |   understand > 0
|   |   |   |   |   tak <= 0: pos (5.0)
|   |   |   |   |   tak > 0: neg (8.0/1.0)
|   |   |   natur > 0
|   |   |   |   als <= 0: neg (7.0)
|   |   |   |   als > 0
|   |   |   |   |   be  <= 0: pos (8.0)
|   |   |   |   |   be  > 0: neg (2.0)
|   |   the best > 1.003795: pos (9.0/1.0)
wast > 0
|   the best <= 1.003795
|   |   terrif <= 0
|   |   |   well  <= 0
|   |   |   |   ali <= 0
|   |   |   |   |   genr <= 0
|   |   |   |   |   |   screen <= 0.897367
|   |   |   |   |   |   |   sequel <= 0
|   |   |   |   |   |   |   |   respect <= 0
|   |   |   |   |   |   |   |   |   despit <= 0: neg (119.0)
|   |   |   |   |   |   |   |   |   despit > 0
|   |   |   |   |   |   |   |   |   |   wh <= 0: pos (2.0)
|   |   |   |   |   |   |   |   |   |   wh > 0: neg (13.0)
|   |   |   |   |   |   |   |   respect > 0
|   |   |   |   |   |   |   |   |   cas <= 0: neg (10.0)
|   |   |   |   |   |   |   |   |   cas > 0: pos (2.0)
|   |   |   |   |   |   |   sequel > 0
|   |   |   |   |   |   |   |   but h <= 0: neg (8.0)
|   |   |   |   |   |   |   |   but h > 0: pos (2.0)
|   |   |   |   |   |   screen > 0.897367
|   |   |   |   |   |   |   even <= 0.302338: pos (3.0)
|   |   |   |   |   |   |   even > 0.302338: neg (7.0)
|   |   |   |   |   genr > 0
|   |   |   |   |   |   a movi <= 1.002322: neg (7.0)
|   |   |   |   |   |   a movi > 1.002322: pos (3.0)
|   |   |   |   ali > 0
|   |   |   |   |   a good <= 0
|   |   |   |   |   |   robers <= 0: neg (11.0)
|   |   |   |   |   |   robers > 0: pos (2.0)
|   |   |   |   |   a good > 0: pos (3.0)
|   |   |   well  > 0
|   |   |   |   sid <= 0
|   |   |   |   |   perfect <= 0: neg (17.0/1.0)
|   |   |   |   |   perfect > 0: pos (2.0)
|   |   |   |   sid > 0: pos (6.0)
|   |   terrif > 0
|   |   |   if <= 0: pos (5.0)
|   |   |   if > 0: neg (9.0/1.0)
|   the best > 1.003795
|   |   fac <= 0
|   |   |   could hav <= 0: pos (8.0)
|   |   |   could hav > 0: neg (2.0)
|   |   fac > 0: neg (5.0)

Number of Leaves  : 	194

Size of the tree : 	387


Time taken to build model: 22.13 seconds

=== Stratified cross-validation ===
=== Summary ===

Correctly Classified Instances        1285               64.25   %
Incorrectly Classified Instances       715               35.75   %
Kappa statistic                          0.285 
Mean absolute error                      0.362 
Root mean squared error                  0.584 
Relative absolute error                 72.3923 %
Root relative squared error            116.8085 %
Total Number of Instances             2000     

=== Detailed Accuracy By Class ===

                 TP Rate  FP Rate  Precision  Recall   F-Measure  MCC      ROC Area  PRC Area  Class
                 0.648    0.363    0.641      0.648    0.644      0.285    0.631     0.602     neg
                 0.637    0.352    0.644      0.637    0.641      0.285    0.631     0.585     pos
Weighted Avg.    0.643    0.358    0.643      0.643    0.642      0.285    0.631     0.593     

=== Confusion Matrix ===

   a   b   <-- classified as
 648 352 |   a = neg
 363 637 |   b = pos

